svm_type c_svc
kernel_type rbf
gamma 2
nr_class 2
total_sv 102
rho -0.0115177
label 1 -1
nr_sv 52 50
SV
0.4147835358301931 1:4.4235113 2:5.1843827 
0.01900762315751914 1:3.2095111 2:4.2075084 
0.3308150798516171 1:4.8945168 2:3.0289225 
0.01540221032122138 1:3.8988015 2:4.5742226 
0.04838266902741422 1:3.8430163 2:3.5660063 
0.4616093416699824 1:5.536571 2:4.2391769 
0.4186899702881987 1:1.8323303 2:3.4976714 
0.1047249326458357 1:4.5984482 2:2.2961234 
0.01604039822792143 1:4.0431124 2:4.5237722 
0.1458495976482466 1:5.2950272 2:5.5641722 
0.8129290192235928 1:4.7063029 2:1.5337471 
0.2733730770350314 1:4.3455451 2:3.8511792 
0.4228147289615007 1:3.9201033 2:6.110837 
0.01324626519419399 1:5.2648376 2:4.3914314 
0.07551424227861617 1:4.2692535 2:3.4900059 
0.01460107886517818 1:4.7952714 2:4.0460072 
0.08566510412313354 1:3.5934065 2:3.3437503 
0.1426468238156242 1:4.5899022 2:2.3964755 
0.281763287836092 1:3.4825807 2:4.4830761 
0.3489382984331423 1:5.1778532 2:3.5315221 
0.03684325055890452 1:4.6070122 2:3.9584007 
0.558669841373268 1:1.9000237 2:3.106136 
0.2620798118252159 1:3.3402722 2:3.7550111 
0.2765735810590902 1:2.5441426 2:4.8601801 
0.1496764012277847 1:4.0237294 2:3.324156 
0.6544024575062642 1:3.1910986 2:5.8320329 
0.005378874609127646 1:3.7609768 2:3.6707277 
0.02875125963683571 1:3.6468813 2:4.2613079 
0.1963798031867172 1:4.8195992 2:2.8878395 
0.2346964574417327 1:3.6547204 2:5.0622105 
0.6183801460549728 1:2.9686789 2:1.9756723 
0.09711486991544775 1:4.8285855 2:5.1953441 
0.4490271151601899 1:3.8528439 2:2.590462 
0.4094714104540882 1:2.6263143 2:3.5577119 
0.703523877824859 1:5.5584501 2:5.3489923 
0.2606821374176652 1:3.425055 2:2.9253684 
0.8307551628702391 1:6.1873352 2:3.6649176 
0.3015846181204789 1:4.2025603 2:5.9972066 
0.9426506219556697 1:2.8907508 2:0.82279026 
0.03831257106753239 1:3.9779736 2:4.0607634 
0.1041504484340096 1:3.0960018 2:3.8182338 
0.03216901207828249 1:4.4000017 2:4.341311 
0.2694491656624804 1:2.8507124 2:5.1067916 
0.1524247996440037 1:4.2172901 2:4.4709918 
0.2955634340417951 1:2.9509143 2:2.359933 
0.5047749853454936 1:2.432011 2:4.4863081 
0.2964472579621837 1:4.9049708 2:4.5205237 
0.8975992024845203 1:5.0964905 2:6.586743 
0.06415630576699528 1:3.7194031 2:5.0652039 
0.04228605408272229 1:3.6371568 2:4.3063023 
0.03484699517838168 1:4.3870175 2:4.2658062 
0.170982789506227 1:4.7453288 2:2.0952557 
-0.7545913732181744 1:-4.6749438 2:-1.8665136 
-0.06831011600731131 1:-3.7856405 2:-2.8272513 
-0.1318521550235654 1:-3.3812101 2:-3.9122283 
-0.6459095836197355 1:-4.1127343 2:-6.1837397 
-0.04253405677995102 1:-4.7948444 2:-4.046743 
-0.3935072950390793 1:-5.4668197 2:-2.3977576 
-0.2284596580048115 1:-4.2366834 2:-3.2313463 
-0.2812611005942875 1:-4.193338 2:-4.7716294 
-0.5320849508771621 1:-6.0503078 2:-3.0189146 
-0.207194560759129 1:-3.2555642 2:-3.5652717 
-0.4126978985720815 1:-5.4103902 2:-4.7711673 
-0.2106189268053745 1:-3.532761 2:-2.3360336 
-0.5048891971486276 1:-3.5018644 2:-5.2443298 
-0.4598335407526029 1:-6.0731065 2:-5.6086314 
-0.2238947207199588 1:-2.8101466 2:-3.04842 
-0.3332602245503635 1:-4.7243742 2:-5.8191317 
-0.4089827236808229 1:-3.8320162 2:-2.2163283 
-0.2164054993862411 1:-5.6716048 2:-2.5092812 
-0.02875571317403668 1:-3.5515309 2:-4.3805995 
-0.5836474617990772 1:-6.3193274 2:-5.4118835 
-0.2172384453604032 1:-5.1053837 2:-3.3298738 
-0.2785475463071996 1:-3.5970717 2:-4.2878594 
-0.08648060119066463 1:-4.2900906 2:-4.2392659 
-0.3289019934933792 1:-5.4838781 2:-4.4474625 
-0.9176625375770584 1:-5.0511867 2:-6.8230001 
-0.6542998492265082 1:-2.8701909 2:-1.8671303 
-0.04403789972327032 1:-4.2598021 2:-3.9618835 
-0.2690197981966401 1:-4.6413576 2:-5.5040852 
-0.1427267835904301 1:-3.8875425 2:-5.5868908 
-0.317172301744667 1:-3.6131647 2:-3.223803 
-0.2532304973955515 1:-4.6877983 2:-4.7806844 
-0.1410231431957535 1:-4.0576497 2:-4.0014281 
-0.08827231023003446 1:-2.4901026 2:-3.5484947 
-0.6747662110320988 1:-2.380063 2:-4.4329471 
-0.05559139222092616 1:-4.0776036 2:-3.0393045 
-0.5191191639420014 1:-5.8189345 2:-3.6184648 
-0.1976462412334728 1:-5.0374446 2:-2.7819272 
-0.04190010994191311 1:-5.2779462 2:-4.0382095 
-0.6822953753369901 1:-2.1478524 2:-3.0845748 
-0.4626473542580887 1:-2.8883247 2:-4.939338 
-0.1535123912392705 1:-4.5438811 2:-3.4469874 
-0.01429767051544227 1:-3.9946129 2:-4.1868493 
-0.03091723386977502 1:-3.2759033 2:-4.2040113 
-0.4359437414925714 1:-2.4474508 2:-2.2802908 
-0.2133902586084549 1:-2.6745302 2:-3.7979665 
-0.1587881467803491 1:-4.3610134 2:-2.5476 
-0.1200923057160604 1:-4.7201654 2:-3.6361345 
-0.09069635776595358 1:-4.7905257 2:-4.0145607 
-0.01182572716260948 1:-4.4449046 2:-4.7244932 
-0.09586785902750124 1:-4.8143965 2:-4.0262323 
